<?xml version="1.0"?>
<opencv_storage>
<my_svm type_id="opencv-ml-svm">
  <svm_type>NU_SVR</svm_type>
  <kernel><type>RBF</type>
    <gamma>8.9999999999999997e-02</gamma></kernel>
  <C>10.</C>
  <nu>2.0000000000000000e-02</nu>
  <term_criteria><epsilon>1.1920928955078125e-07</epsilon>
    <iterations>2147483647</iterations></term_criteria>
  <var_all>840</var_all>
  <var_count>840</var_count>
  <sv_total>0</sv_total>
  <support_vectors>
    </support_vectors>
  <decision_functions>
    <_>
      <sv_count>0</sv_count>
      <rho>0.</rho>
      <alpha></alpha></_></decision_functions></my_svm>
</opencv_storage>
